function [Y,Xf,Af] = myNeuralNetworkFunction(X,~,~)
%MYNEURALNETWORKFUNCTION neural network simulation function.
%
% Generated by Neural Network Toolbox function genFunction, 05-Oct-2017 15:21:48.
%
% [Y] = myNeuralNetworkFunction(X,~,~) takes these arguments:
%
%   X = 1xTS cell, 1 inputs over TS timesteps
%   Each X{1,ts} = 225xQ matrix, input #1 at timestep ts.
%
% and returns:
%   Y = 1xTS cell of 1 outputs over TS timesteps.
%   Each Y{1,ts} = 10xQ matrix, output #1 at timestep ts.
%
% where Q is number of samples (or series) and TS is the number of timesteps.

%#ok<*RPMT0>

% ===== NEURAL NETWORK CONSTANTS =====

% Input 1
x1_step1.xoffset = [0.8039216;0.8;0.8;0.8039216;0.8;0.8;0.8039216;0.8;0.8;0.8;0.8;0.8;0.8;0.8;0.8;0.8;0.8;0.8;0.80784315;0.8;0.8;0.8;0.8;0.8;0.8;0.8;0.8;0.8;0.8;0.8;0.8;0.8;0.8;0.8;0.8;0.8;0.8;0.8;0.8;0.8039216;0.8;0.8;0.8;0.8;0.8;0.8039216;0.8;0.8;0.8;0.8;0.8;0.8;0.8;0.8;0.8;0.8;0.8;0.8;0.8;0.8;0.8;0.8;0.7294118;0.68235296;0.43137255;0.30588236;0.23529412;0.13725491;0.24705882;0.44705883;0.40784314;0.62352943;0.8;0.8;0.8;0.8;0.68235296;0.043137256;0.003921569;0;0;0;0.011764706;0.03137255;0.015686275;0;0.4;0.8;0.8;0.8;0.8;0.5568628;0.03529412;0.05882353;0.019607844;0.011764706;0.09019608;0.007843138;0;0.023529412;0.039215688;0.23921569;0.8;0.8;0.8;0.8;0.39607844;0.003921569;0.011764706;0.003921569;0;0;0;0.007843138;0.007843138;0.015686275;0.24313726;0.8;0.8;0.8;0.8;0.5137255;0;0;0.019607844;0.003921569;0.003921569;0.003921569;0.003921569;0;0.007843138;0.39215687;0.8;0.8;0.8;0.8039216;0.54901963;0.047058824;0.043137256;0;0;0;0;0;0.011764706;0.05490196;0.45882353;0.8;0.8;0.8;0.8;0.8;0.40392157;0.26666668;0.58431375;0.36078432;0.23921569;0.21960784;0.30980393;0.37254903;0.65882355;0.7254902;0.8;0.8;0.8;0.8;0.8;0.8;0.8;0.8;0.8;0.8039216;0.8;0.8;0.8;0.8;0.8;0.8;0.8;0.8;0.8;0.8;0.8;0.8;0.8;0.8;0.8;0.8;0.8;0.8;0.8039216;0.8;0.8;0.8;0.8;0.8;0.8;0.8;0.8;0.8;0.8;0.8;0.8;0.8;0.8;0.8039216;0.8;0.8;0.8;0.8;0.8;0.8;0.8;0.8;0.8;0.8;0.8;0.8;0.8;0.8;0.8;0.8;0.8;0.8;0.8];
x1_step1.gain = [10.2000016320003;10;10;10.2000016320003;10;10;10.2000016320003;10;10;10;10;10;10;10;10;10;10;10;10.4081639556435;10;10;10;10;10;10;10;10;10;10;10;10;10;10;10;10;10;10;10;10;10.2000016320003;10;10;10;10;10;10.2000016320003;10;10;10;10;10;10;10;10;10;10;10;10;10;10;10;10;7.39130531190939;6.29629666941017;3.51724138537455;2.88135596150532;2.61538462343195;2.31818183978306;2.65624998754883;3.61702131892259;3.37748345936582;5.31250025732423;10;10;10;10;6.29629666941017;2.09016393682478;2.00787401649901;2;2;2;2.02380952405045;2.06477733002508;2.03187251097205;2;3.33333333333333;10;10;10;10;4.51327489544999;2.07317073676383;2.12500000132812;2.0400000017952;2.02380952405045;2.1982758658591;2.01581027819369;2;2.04819277157788;2.08163265679967;2.62886599225476;10;10;10;10;3.31168835899814;2.00787401649901;2.02380952405045;2.00787401649901;2;2;2;2.01581027819369;2.01581027819369;2.03187251097205;2.64248706443126;10;10;10;10;4.11290330872789;2;2;2.0400000017952;2.00787401649901;2.00787401649901;2.00787401649901;2.00787401649901;2;2.01581027819369;3.29032261991675;10;10;10;10.2000016320003;4.43478282657846;2.09876543313519;2.09016393682478;2;2;2;2;2;2.02380952405045;2.11618257085794;3.69565217793006;10;10;10;10;10;3.35526316562067;2.7272727768595;4.81132103840336;3.12883438654071;2.62886599225476;2.56281406004899;2.89772730812565;3.18750005279297;5.8620693192628;7.28571438979592;10;10;10;10;10;10;10;10;10;10.2000016320003;10;10;10;10;10;10;10;10;10;10;10;10;10;10;10;10;10;10;10.2000016320003;10;10;10;10;10;10;10;10;10;10;10;10;10;10;10.2000016320003;10;10;10;10;10;10;10;10;10;10;10;10;10;10;10;10;10;10;10];
x1_step1.ymin = -1;

% Layer 1
b1 = [1.4164571506832634995;-0.86216348449374691221;0.31079448892992733722;0.29560033367751076261;-0.83972986322423359695;1.3903886253403423545];
IW1_1 = [-0.8936 0.11610420534069644527 0.087655505043574610813 0.0082285466155394629273 0.016917439356258740651 0.0045278297261783367889 0.036273307832576935639 -0.028311254037616567086 0.017752314091592832218 0.017047318564778462385 -0.05469777031150150487 0.24732758531011894698 -0.070767539937483303625 -0.053972300584973709192 -0.094547192481089142868 -0.13137876430059017285 0.0083654633259294848557 -0.043228003375061926916 0.016119902850341340933 0.017836509072138278381 0.090317015419094939799 0.092543134831308798693 0.039435084649758492259 -0.028434114511526265706 0.062664145469425627799 -0.0099807966654859251593 -0.02952358298395998254 -0.029319287003529970886 0.0049419753506655108785 -0.02872339123271081332 -0.11175824686271960962 0.15962347646459720818 0.12604048502256209874 -0.1449448379056702263 0.26237231928673016013 0.035249634730369641678 0.1026872587145249982 -0.079137112599266395963 0.039096873887764886646 -0.15372228995408696028 -0.05690530305491462576 0.34397403045511193431 -0.090368668011847064214 0.022958382195334258585 0.1399176021678010251 -0.082874826789171143759 0.02111103835995664299 0.064323481487720171601 0.03959653238650544943 -0.043167176870301748881 -0.070400307390379238126 0.053394157728253441308 -0.15930857021067537649 -0.043632634800882551251 -0.32345032883512264688 0.050658264147289792934 -0.12626602924748528411 0.040221374638826377923 0.038213074134827273998 0.077957104970117763187 -0.073691666392161389587 -0.17957344174844511175 -0.19511475139277878466 -0.1928977516861270225 0.024931823316763506576 -0.36393373749528229455 -0.64725474284316242279 -0.53860672096655515251 -0.19244281722125367029 -0.088282362597397356918 -0.072810322794174361927 0.071021489703918999625 -0.058536637379480893628 0.069881047530169979054 -0.036485999021699293265 0.043860115053148893138 -0.20105336939150225684 -0.20036804322939638645 0.33982514270253560973 0.60515277693194535757 -0.12493173139009036698 -0.22538993033056176074 -0.59024228663644973114 -0.99265691597404503987 0.3077410024661957344 0.2598921035440421301 0.35179700718978718088 -0.019475530070676091293 -0.0045836004915116874275 0.089613788222339452183 -0.0036078513161060415428 0.1813995119823516855 -0.095112270823398223363 -0.42007270397957618968 0.37740539083860791258 0.36545058598119178894 0.75354180418002714159 0.68023085304812735963 -0.27146277238772742457 -0.75321800375178948883 -0.60498573475139327815 0.066303463434465484405 -0.050053018572250813911 -0.021546862875414143912 -0.10678340186983008298 0.12532027489586780589 0.43917787637419475333 -0.25513972838702186907 -0.39176360450176217487 0.19897810295302495454 0.51326057777717437602 0.15383692944395802038 -0.56386228796046022893 -0.87236849331500987415 -0.73638967166405111531 -0.37411884975054016111 -0.0010186004361528704781 0.06381072666459136622 -0.11564597524560053798 -0.053378750582208138453 0.053054963010955316638 -0.085827927232768344568 0.13585096767123944206 0.47387207402440412185 0.30285371721670217848 0.52576033802633681535 0.28553847496425266428 0.97689748269747556098 0.69196582158470198998 0.26406736484149018196 0.27380649710242560557 -0.22624645214888305933 0.008887831729774062911 -0.20997253978114172046 -0.031901188095249582988 0.054951442389924463894 -0.18436420844497006244 -0.31234028131863145195 -0.14788951387667792492 -0.037995588878000731425 0.0073652793056139583688 0.43506482188275458212 0.93159425063751943874 0.90289188916121421169 0.34911228880921096884 -0.15950835974887248025 -0.17706858340189993162 -0.10878161005869174671 -0.022179288187172335051 -0.075366405171638700677 0.031411585267759743745 0.032645680955214230468 -0.36494616456383277558 -0.086348271001387907897 0.19874871429573146009 0.16501448271065516371 0.08792306140300769346 0.084695627804589668219 -0.11523918810698770276 -0.10487080806858946336 0.043598954448469985634 -0.091367716896196535248 0.11295329730143142954 0.087146993471523978569 -0.068569945831657194701 0.080866731333292224404 -0.053076212019720570012 0.078520403673858860105 -0.10397209179477626129 0.092771544699397523459 0.043521081356421055519 0.19515936321180482604 -0.006170995074501108707 0.098322777453358642386 0.037418040790334214374 -0.079416623312606862695 -0.091088007568612294751 0.053096995842778431374 0.017990657990470251132 -0.092754385829359631277 0.19816640530489945671 -0.084321983322865792787 0.1871795211969086159 0.051753015640110054674 0.051220379799929938169 -0.0072069150297278967293 -0.016715901913365738968 -0.045951114821346686345 0.042383666323075712412 -0.085545772048152279865 0.08081470277736881036 -0.022210197310986258545 0.034584425539207992728 0.12123384311447872597 -0.021966296728597442534 -0.023969189438769064604 -0.069284853503018162257 0.038223191523475509579 0.0015616027165867350877 0.031319059056577037981 -0.082058841707771473795 0.097980005337533204735 0.025631079990731851781 -0.16042321250175836655 -0.0080499630588530685094 -0.037976734461933635278 -0.065604094420122299747 0.096095044398709972278 -0.022117310071516380759 0.12134419002205593108 0.059479283981939704007 -0.078444899585147012666 -0.060060388581261232865 0.0050168920447144814759 -0.017598449854285581895 -0.088815126403211180905 0.16744478456202627203 0.026651441616345993013 0.041932696826337052809 0.072544446721790403765 0.071500082078244125983 0.042699320948294941513 0.12452357630172866676 -0.096934948130104156561 -0.19005340061489506276;0.029264472188548634746 0.04667628866590817216 -0.017266002250450447619 -0.027080408218555489935 -0.041416825985901239982 0.13115158473310103981 -0.015720110123864882573 0.030161001844250721199 -0.012022391570850143525 0.021338109395780874289 -0.11715112567569355151 -0.16643136969514876755 0.020031806570887291524 -0.17017035496151566853 -0.11311680511839224128 -0.061788152686897003518 -0.12026612810459584579 -0.088551712650580371999 -0.052627462811442940471 -0.029725486127453241286 -0.065585028348360857597 -0.11445026817496097016 -0.11143344031701676866 -0.14619544008402857171 -0.0089878728923014784141 -0.016505492359541372449 0.050860969823953203206 -0.062850164430886992784 0.12325639001463269129 -0.12009967970989393615 -0.010071262737342110208 0.097021503260092609167 -0.064656250824211017325 0.065943995428608348508 0.11355578103813010471 0.11863799441002377544 -0.16298417642049614629 0.11938705917698821946 0.056387546176033823131 0.07566861422698441253 0.14026943500349153826 -0.041275334185540225873 0.1362796558606330366 0.016216800753697288573 0.089710457813886063105 -0.026197536199037203819 -0.14332473509881812901 -0.019742743528337058229 -0.17459591300414550874 -0.10854464222953090491 -0.07941043511613637973 -0.18082963247662203754 -0.04207132309169828166 0.11288382387312088928 0.092147341164340132447 0.11436755207737772655 0.13167016308302309513 0.032227891948959412616 -0.12019643459137274721 -0.1495924951751947396 0.022766612035982628642 -0.026420916481929977715 0.055979660317164066374 -0.012261875717141884276 -0.12677395841548402822 0.087291809853367888228 -0.13389179626638209042 0.016270204386070723918 0.086897312652478131412 0.11001905301516576308 -0.14013814502656671279 -0.053242702077594565579 -0.070796190825013177728 0.014402052286986880697 0.0070896541131152731458 -0.038280400667440102336 -0.072570674750094460448 0.0034531481807100147287 0.14447114368457950051 0.095410361463869428067 -0.15876382136524830324 -0.13702340933227497022 0.13058520529636100105 0.055820454558644594378 -0.15726875739449114322 0.11556315196317397398 -0.037704341315838670046 -0.015041619278852757721 0.066661122660122626438 -0.040726296147221452415 -0.081656180941960393449 -0.084512401871434300604 -0.069325542006438617415 -0.013506004766490574409 0.010625611731846800259 -0.04678991847913345492 0.15776787747978601728 0.11421398515560410303 0.035619797179760416539 -0.16868325810243930962 0.10298861876592144138 -0.021805412331085731459 0.12029310284659117114 0.031234184374504717074 0.14742369499240343123 0.055237244060784625177 0.039424801732135944521 -0.118258749476078312 0.055980094078439228411 0.081221067492272508437 -0.023710586513734140807 -0.066477282481434557537 0.057936601323890342397 -0.10363830315083209788 -0.11853880139235276059 0.10845152785360095971 0.07841234468139454683 -0.13499841817936977795 0.063205971253676065946 0.086057875702814201624 -0.072830664493701208206 0.11624387373774856813 0.087215287075160963237 0.034069485140558630754 -0.077743099655375125234 0.105112750200577032 -0.091464661861965182443 -0.16212137850090799218 -0.052969519436762257936 -0.022466971979991659514 0.0068942046798146422101 -0.088962401790095624321 0.085072278244482754661 -0.078160121280718558578 -0.048323966481960155261 -0.0249972123891161295 0.13643845607600144088 0.035627661598571884471 0.026988506444212637808 0.054283365073864733863 -0.17916891536942583518 0.056082896208562021956 -0.049553217067858548739 -0.0033263538985322527175 -0.1651286750099670575 -0.058256620253787610997 -0.1676785464788829727 -0.1491218134437295173 -0.11313505470628520966 -0.083743270987402182448 -0.021918369881002486288 0.037147376640947062099 -0.15764897749114584191 0.0025753988859692983696 -0.084724462462032704146 -0.14510479497148823236 -0.071825354275090319556 -0.17312006596993717578 -0.06974994099925629909 0.10259479840930248173 -0.1578062461197896893 0.029135669634562915559 0.012617187515644072773 0.04727451464283843191 0.076089090420956823069 -0.013700929869751101581 -0.05968587148195736436 0.047717354979361664702 -0.076310424134447843447 -0.12787146209929936558 -0.098910555189516066732 0.049253762878431910088 0.0069039494128783204449 0.052948940900645467822 -0.14955089967853335553 -0.026889374126598138831 0.060754630215167519658 -0.034844856401502866117 -0.15565468727333733878 0.028558631651426091141 -0.14020908247973584704 0.1132494505495879461 -0.14087324900668046768 0.13173609235374916793 -0.072577805362600111838 -0.09207982558597758993 0.097366186350744912681 -0.051633355944693738737 -0.029789046834764399546 -0.14662425367622436423 -0.10219772666193713273 0.12163235564238880637 -0.068795340855176662087 -0.027228016861104514801 0.01773286816748566308 -0.079510566860089365582 0.096234225338702503172 -0.1707583773200121724 0.095233982232906577714 -0.10402286413339000004 -0.10141592549384037536 -0.12862961245525630916 -0.12193033365599795226 0.098423141580327722089 -0.15943193559810114879 0.096689246682464632943 -0.14615717812878212256 0.036399734429767904853 0.11465285560675836374 0.045105895897399057859 -0.08989271442348169272 0.12253600299180340827 -0.12404785595065515036 -0.048037657109766554453 -0.071881751891260212139 -0.13286173217553667869 -0.10680463568695276744 -0.1187403709441089833 0.058673196032689105273 0.04538314622585686714 -0.050482118243849398442 0.031300766967014441444 -0.077853124110474319908 -0.12186820874085785293 0.1183948197088551535;-0.061408172634986643579 -0.053649574254038219501 0.22024221133396110206 0.21460809901596883398 0.035423107309223447747 0.18900156384950039801 0.023636123767057273803 0.021084968225853668172 -0.070441287150031894893 0.023692420358046743789 0.059449526994176625505 0.14824020152379890902 -0.008633619061709885828 -0.0080914828398929890263 0.03017134301913879102 0.055923540411806381412 0.0033209130929664101677 -0.092325624435535907919 0.20982395656530999917 0.039151835497375900297 -0.046150480554790734855 0.032659629214446310452 0.11288451220086577476 -0.052537736050379632569 -0.3279951703759036441 -0.078390626960825798841 0.066062830098104569077 0.069813114400949588534 -0.064850231916771666763 0.067161611953919800322 -0.092345676355087030762 0.15458080974300250632 0.063252412319326392631 -0.041704884262806135586 0.26929957761454403897 0.20484593723836286294 0.018328019836638897999 0.082585400183245977201 -0.046944034750598134798 -0.22619342258357330588 0.084147258408099973037 0.14394657525726647918 -0.19751439286702673903 0.050295336061721228338 0.11730930889736504441 0.07941190873898076874 -0.070513002700618485075 0.0060568279522759255196 -0.10103326116480362828 -0.09801593639783628964 -0.073030612245752773992 0.11422893575843325042 0.046393208564038557196 0.076896320929100078767 0.10346575606955726867 0.10308974378032352559 -0.039114786368424817042 0.065219183343647360585 -0.10455415702120583743 -0.11396258867190429964 -0.12048748623573424243 -0.12922528423217086169 0.1558679011407030357 0.18363732221989678695 -0.15615039466295196902 -0.2915091225236259298 -0.79146018670180318111 -1.0451672179019382281 -0.70936129251008372965 0.044090400837161473901 0.15051640153400680511 -0.0086112171362074437647 -0.076588596584594048622 0.11521523818637198489 0.0041117962588519962885 0.041241285436400931808 0.074166943874822116589 0.34652572558888777854 0.33231039349909802239 0.34914064340282391363 -0.38297054745310482593 -0.83804967834012167316 -1.562543356479837886 -1.5573030626398958187 -0.1706765320214166104 0.74145516329930638566 0.47294501878071576462 0.038436574968194851809 0.11938250423615871798 0.029983634511969496639 0.12963237300527372109 0.35670457081732254156 0.77034047230793034622 0.18936012303941379686 0.11214616190566803478 0.090821945241243706715 0.21075902503941962296 -0.10541269550692122792 0.21389981906465538319 0.36324618287272120165 0.43762166527542939454 0.24639270992892431389 -0.094122102374378041612 0.1562363118868923817 0.035249290008048841938 0.12695061731111589864 0.30691593732163452435 0.11369816280987196655 -0.53890907967821455316 -0.70039243066497103296 -0.37773392867137434159 -0.63564965284722829697 -0.34921077442287157266 -0.37661088291534378092 -0.38969300354970165534 -0.35641232592433325088 0.037555200424033194362 0.10175125259905497266 -0.017365308051029895026 0.040607068636232063197 -0.10037441510441709458 0.042034521891931894699 0.17949942747884306549 0.40589372960261843604 -0.24974464570693699628 0.12842954155281469109 0.37660516299995711043 0.30666091979477744234 -0.49851474764291847652 -0.34571370586292904381 -0.094086111002715952512 -0.53316445023767122802 -0.031891961604535966346 -0.027173246348061688704 -0.28037196153349641659 0.12783186823121908682 0.28933052912987655692 0.51256868490958296114 0.56903783301834376385 0.45864429914488263895 -0.023415076826943690552 0.23532428057901927376 -0.2250640557313750012 0.23591876050431612177 0.18859104543878127402 -0.3310902843562856801 -0.27866336087369014685 -0.10778514066232468271 -0.20968196246569026364 -0.037691271262401258857 0.080274141958255287865 0.21783681906469853917 -0.035835598932032503017 0.10715875493505805371 0.044845184753471323269 0.16394293373056420537 -0.064265117042658720381 -0.17825187760566571504 -0.3614619835324937025 -0.2448799860497435088 -0.18327345884660870001 -0.055808961932848524801 0.056297841398069620178 0.12599372284809476352 0.11673739249108287808 0.08318373423603871164 0.12569783599877037972 0.034164629685375834389 0.070430356293137902357 -0.012781264172172289093 0.028760204889785520588 0.20300634166967529426 -0.010094606846114444892 -0.040363540200167524752 0.049650203118976388161 0.031674732109647191214 0.027660911714579225484 0.078579432414555477893 -0.12774277921255036694 0.028947284478285869452 0.16737650594596711895 0.047084235358739824628 0.057216600130503725286 0.083063318641034666889 0.076418411798016366854 0.17366312692724716893 -0.14656342618376400067 0.11773937876143962533 0.10906583087816769384 0.080270837945770737165 -0.029007217251751260534 -0.072293869904443003316 -0.13049082165098180308 -0.032826795518233656268 0.16253322606686554375 -0.0021879224776705221908 -0.23719108428682611489 0.23423990482656589784 0.032556792003417309167 0.081935864752382514542 0.041746632141651203451 0.0074106875086228565092 -0.022947315920239116926 -0.0086110584441530489686 0.029200063001706872551 0.11256217564466348968 -0.095352482793746876077 -0.024020650456502267572 0.057871465162079610556 -0.034898496692722873191 0.079156676865959160749 -0.047002351636202505114 0.070241967728135054627 -0.054413890968204266241 -0.10613099253703076053 -0.07058539132156776974 0.0065845301803074580971 -0.0050471801973329972341 0.054652003002327871617 0.14896250050203815873 0.042839459968906416776 -0.088013208042051677138 -0.055015939212250682122 -0.077229924657045229131 0.049688741795048119165;0.090873860217240712278 0.093145996251012649902 0.042571765824978652359 0.24001016577734357593 -0.026981927047221763993 -0.071800760715398703748 0.046930827170189835795 0.25425625330397588764 -0.024639383512702377893 0.14239792073399656913 -0.12223800873231055464 0.0099855815460389747706 -0.016909281188455443923 -0.11111845604137043919 0.032167035814348786393 0.030745017300946923117 0.19166014420603533219 0.11003768275776727725 -0.10894657297599612267 0.048591498633378936434 0.017101618132681899176 0.112509145320475068 0.046124756612129051703 0.056230559254853852702 -0.036988283377775398042 -0.088598244446700127885 -0.0079685093613370977517 0.035265330235916943213 0.077585594406864036299 -0.043567811977746943863 0.069086690897370683917 0.11863036199427112738 0.13314209716738911737 -0.057743180488072795575 0.077450337075852318525 -0.05874346632132842333 -0.076374245131108270401 -0.27875567682958346527 0.034045477524464635988 0.158292593417254851 -0.15206610199325890087 -0.026420897052783290371 -0.1716309997674609622 0.054179636960197591344 0.072115712182333591151 -0.088147319384605085646 -0.0049302619907426173049 -0.17932464675167386625 0.090086918214560024465 0.028001128863409545378 0.071612185067007699812 0.071271064954571375361 -0.07905524118049969684 0.029222398504123472257 -0.0033867000088733806296 0.135009279128972981 -0.1539629972124061108 -0.030629667038890470016 0.14037701895912821359 -0.036638324991052191593 0.024398079382781781566 -0.10208017986727246917 -0.076377806110556334396 -0.14727723973602321883 -0.054127652152991825862 -0.28663316509163289103 -0.074832811914764915673 0.0058264346507522482219 0.17508164448330829077 0.038907331916988675824 -0.044947428921085434694 0.059976315260840427912 0.14488541700958013081 -0.07127709483127950274 -0.0084022292253924570765 0.032687755162194548353 -0.12116907136183137361 -0.56327476892615679915 -0.34883361668574736081 -0.41742219639221200822 -0.50825745369021668729 -0.45075569489080163921 -0.58244277951951695105 -0.96611508703705861745 0.2678950685392322284 0.50712190042645088894 0.32224334090708617317 -0.003043610291853359167 -0.15133812613472891195 0.027970445362891897118 -0.052617874134048343848 -0.22954692385706307323 0.0018603204732333582586 -0.66473270723254052061 0.094526572312178619439 0.046408813109991071955 -0.32142658009746627457 0.025634634471050982835 0.22639662670787921717 -0.16926139868636094765 -0.37994573390759422971 0.15200757778639961693 0.029544999207597046065 0.061728585583259408531 -0.079011666899686486265 0.0693020582606989205 0.16615416354050174808 0.18065871607862449277 0.35286976344411685735 0.71689526671608538866 0.40650412850552458677 0.26113970147474702133 -0.1624531052924803598 -0.48165676237307436525 -0.26282538924227866195 0.54167049469334738188 0.064332325527479569671 0.045891105101473490813 0.16450276115575693248 -0.10038254590505982233 0.17329697777225891442 -0.0081388657127783696488 0.28004198221354209553 0.62156422408597622464 0.52063663874668408837 0.069104396490274375142 -0.040684277302092550221 0.63473391865692263547 0.7228335185107955807 0.79622744065180039996 0.9445780743178353589 0.13335328325939685423 0.073000169697264971624 0.082316614410903696242 -0.16134187595826968153 0.14745908351665781844 -0.1557408337961448952 -0.64508154452939370227 -0.93303075814413671818 -0.67994538841496765524 -0.22778429795079230269 -0.16352854097417995893 -0.2040870907137737611 -0.22032746726614010901 0.055840676361257189642 0.25495342827699557509 0.27403790710279923859 -0.082151991262322199283 0.16368717363769960671 -0.17399863329402484591 0.047138552746036309349 0.057564895046201255968 -0.078535648761168391774 -0.27044391152874314166 -0.21106106400043850302 -0.21744969818332435252 -0.20767177493737587479 -0.062242473293524114286 -0.13024224321875482735 -0.16739741350964787436 0.028541788420776637719 -0.14082503582597308278 0.095857551124743145543 0.046895056300033849395 -0.258965204130932658 -0.11319338769473472062 0.013432542115576080397 0.15524477288571844613 0.0021519841113626686675 -0.054691767987484055102 0.069150125676537721464 0.025544983230485356768 0.019630867120522019209 0.019185569719126681354 -0.045807834711093883828 0.016768597889050697314 -0.26474008843533181068 0.13454569502572782946 0.070575246885922648943 -0.03281248224348103093 0.15955773310405527154 0.036413116132331661834 0.092212095354286843785 -0.041025471382912362395 -0.039550972829768105132 -0.082203810140866223621 0.11572328857861677309 0.00095195557105892886565 0.06859108741806360654 0.019415116634626524567 0.02062170405710814225 -0.037305496501333405834 0.044317755348750376143 0.15661861537677707057 -0.0015045303260924590416 0.054462269018427718337 -0.026144693817671715158 0.12212083120226467636 -0.11919742524889956337 -0.047338362966295288725 -0.085827931102880936076 0.0077744123684632395963 0.018870233040027172694 0.16830364359093416549 0.0083822815236658555771 -0.11105338417481207258 -0.12543863849860595328 0.072597749074107362222 -0.14903420049194374131 0.059972665067757946478 -0.090833053082451223337 0.073667978556011634583 -0.019455629340165894042 0.021378866110100060854 -0.050730164774266568728 -0.083615016931656988008 -0.0538386338510614057 0.089690976155329241171 -0.034769193703989662025 0.12711969230863195968 0.10851647585965959464 -0.055562836729511573541 -0.048754631998002700977 -0.14744724455951693787 0.050602030784125173746;-0.10252163335562111679 -0.08413270691683566449 -0.0023981983274433925357 -0.091824815289515845929 0.08952361832934675745 0.042204394666004479975 0.090887630816838926862 -0.047701884610485245641 -0.078043800007507435623 0.14223811245040557383 0.035493387740740192648 0.025109982797360288348 -0.1604974723237038714 -0.049566011791822656152 0.17152153691655344647 0.0038829386216984334602 0.057891009265933310313 0.06687797565902635355 -0.0045945950021161769544 0.12907536407941933021 0.14543986906833622497 0.15161181305378229611 0.15194023693335520497 0.14965503469549618076 -0.10457816531275938854 0.012044771927080394347 -0.056842859877670855184 0.042990152265674916321 -0.069599639042021405055 -0.06243156967553114417 -0.05556588929451372616 0.0071010271382466062101 -0.049513363646160539477 -0.024606042683344184901 0.06675708190081712512 0.032879747002150558344 0.14103970377756908094 0.091174616515611886514 0.063897057926238759462 -0.057331649014059710145 -0.1262641078542230122 0.032065762609106818193 0.066125098778203134087 -0.11950461108643739561 0.069415631490805165815 -0.044845108057396713963 0.19548802397083434035 0.010788780238913681792 -0.14047641519631148821 0.061789347758528068155 0.0023366661471699206112 0.068138095495236333798 -0.016806732987438219307 -0.060225925572355162863 -0.025306031919408375486 -0.14180736961170375965 0.030775141298741204299 0.0045533645319396146012 0.060485523866852582142 -0.14829294376936011379 0.13673619179753593311 0.041057531782128592335 0.21462910306594248921 0.11973687256544328361 -0.22344928561789961785 0.03643255592149528127 -0.034866036726916148358 -0.26467383575216685276 -0.16135302601374448828 0.0280027337531242905 -0.31092215878071416402 -0.18201898922647252732 0.047046351806504287107 -0.15523827802703013545 0.08786090303754005848 0.074790330269477220404 0.24299193121454107369 0.019743117566606561281 -0.20680809185626591873 0.021970253036654122797 0.17969712647853308685 0.28719819983741551317 -0.27670183867645625764 -0.24160089252289268513 -0.26776056298422262758 0.10305623570147680323 0.3489986211821148876 -0.11340310128434837045 0.049322474878764330231 0.13696240598024883584 -0.05357960692640095085 -0.12783695774101869191 0.27500164001092658461 1.6278299444269608287 0.37915514869784971985 -0.32483443671118589213 0.41019923105060696056 -0.39474216148908558566 -0.22228822234344022823 -0.16316503691558253974 0.48193778902425843391 0.3287827725141959645 -0.097442727632059800147 0.076038536437780468447 0.12910100567015322937 -0.089416658888510039405 -0.12398977789754735135 0.4179625704540100295 0.69846089985084203189 0.28270380809243111919 0.0032879448062701501464 0.15640169852332883038 -0.16734387102115724777 0.4711127387551781176 0.037581871271700977022 -0.20605293524456194665 -0.029544014175929063371 0.04379589271952945978 -0.19118609323273053069 0.055476475145375972464 -0.047699709660295859515 0.11223804040152510209 -0.24825828704502236888 -0.91448112859244212736 -0.62900752587679442662 0.34866169112537898078 0.071539356710603907441 -0.71641988442357162903 -0.35714506028191905784 -0.94726572714679169174 -0.44119671330322451919 -0.011390860352736923919 -0.13661241721470127053 0.11300467950455304889 0.01077797259167325751 0.1475357238982524799 0.60866545715957776075 0.6944300272527516027 -0.030639273638851421272 -1.3190357121133380325 -1.1837619247024462332 0.11901504245498645274 0.26037004266186414281 0.094180445441239213356 -0.083669649356063149903 -0.27959143227872818027 -0.10839377673898005494 -0.070822939133966547609 -0.046058499763292071183 0.12624607259266301673 -0.042622522275281300719 0.14069390251692207028 0.27383985385636333554 0.24698788184964534653 -0.014220935214257653806 -0.037981337493048453191 -0.2042689652263136868 -0.062780770502186819537 -0.16162565804942341519 -0.0065779460544657169727 -0.128415816267225813 0.0063648464940117320879 0.044161561589789746773 -0.057338326926687027685 0.18903928131712993688 -0.0097620845836106830834 -0.049539964257792973301 0.054691578965587350769 0.021668400767634567877 0.021478718382697849915 -0.019452742616718084884 -0.10809905356473789584 -0.03485126695670967556 -0.112097659496560767 -0.0086058174808680294038 0.14820167739617609581 0.039815218683373787556 0.02111038454141492271 -0.051928938305544306009 0.047556634889617033224 -0.040642582348693515049 0.12548133360347363263 -0.25002296916011496064 0.22388497153203132384 0.12041102034059185388 0.053111099503581116199 -0.055680545683679874558 -0.051037611514948177938 0.028481733208749880626 0.15120350352649880588 0.084516911358247168162 -0.17913909994930879432 0.076750711304658464362 -0.056425843383256131525 -0.083496102790829695994 0.10583854296889573521 -0.021942157341217249228 0.099937305796609698927 0.060757908350052187985 0.095561587238115766607 0.10242018516306349019 0.068839688685944921964 0.072425136079665969335 0.057627292743213980042 -0.053277622536629619387 0.10471379585368652265 0.080511068867862592424 -0.0060764739364928248982 0.087030143343443805426 -0.16498826041271358323 0.12690975993481645734 -0.062307306022531205869 0.029840515301077865512 0.06088079356086912447 -0.18328455199743148851 0.057067002880783972152 -0.024757895883474628773 -0.12996113916410589884 0.087607531881517472505 0.024655975713163576918 0.019500911720214394313 -0.06635271663067131287 0.15686021008672446087 -0.0045959320270163479816 0.08966171583646939669;-0.11491963777448252482 0.042626943800020314357 0.27917388516536639775 -0.10395314441983878606 0.09721744716645745743 0.21835802802260134703 0.067984286483521283451 -0.038272512846252493279 0.06974492350746745728 0.038529354456502684645 -0.13326524530186653617 0.19617605701726115175 -0.13884660247198563066 -0.17670382338164788982 0.13489238921320237385 -0.090130052473666649737 0.038781409338466021897 -0.1235066231608049625 -0.092547081973328559901 -0.11051182150444238683 0.11197176594468283284 0.21116064126719466532 -0.22857559310481667669 0.0054691515851950662369 -0.088884238198188095237 -0.40806780728861741236 -0.064412589730948516253 -0.084352006193593440098 0.089324540800369320315 -0.0084905771641244718456 -0.02031589287926077389 -0.36412386571373406285 -0.066256258779739451992 -0.074755087667464525936 -0.15059279324287863644 -0.12263164341236247601 0.04041993157261955516 0.18590746459678406111 0.22995378307329841783 -0.18869492339406551684 -0.26389905503054694735 0.15527779015880341373 -0.11602692919409657302 -0.053301694624951823087 -0.030159130106697056711 -0.036561236049886938759 0.15678358556802424184 0.098221503257279060839 -0.22553529389429141649 0.04649218738321700406 -0.022780562758008746777 0.14847773807050326789 -0.17345383736097916283 -0.031578550089464016426 -0.019149881666096397331 -0.11175306804151610707 0.08241177252649291296 0.16239992206781647677 -0.022394900726422927589 -0.026496109745733183866 -0.09847506876144059007 -0.08153522757502872087 0.1467069027207952292 0.11103256546540916927 0.39678897211168007164 0.22712499501264307722 -0.025588806916247736067 -0.1829359668635249514 -0.16062054986671947532 0.08616409579367265148 -0.41134097391655816134 -0.1711972249364157872 0.026917991464355479903 -0.098535359444791706385 0.24277477253365897791 -0.11459074046878835185 0.04251554122138458125 0.18854354776019702222 0.49116158770319878757 0.12790089308478005958 0.09985247710906186569 0.37682004222146064931 -0.89957309145336816769 -0.93798230035970964202 -0.34796248831192982953 -0.25270607911787057454 0.30540687547008416036 -0.2788778701897187684 0.01162367052733917494 0.053734116557032800265 -0.11564366060988567897 0.132212153094092566 0.46382248287731225878 0.21078660406730342913 -0.11140541486200285226 -1.0881849280884370312 -0.30760964320357869761 -0.1110687796747422823 -0.54486541618948647336 -0.84392051650857402567 -0.13067344102867806122 0.11449206240196345419 -0.12760358318234898967 0.16728952913477931896 -0.0038340793343322283546 -0.056434606140095149029 -0.089715526837312251085 -0.26195112345370669127 0.86341943056372627563 0.84815107333744133022 0.037798517425413999393 0.034461782507479818416 0.5230455467782887391 0.66681572660007515374 0.62937421929484049787 -0.38325864580907542667 0.069160032387321129788 0.21332329332507027342 0.12652233920675415302 0.09471194817367241392 -0.172718660885775116 -0.41367554369712516982 0.050799755833600149235 -0.70350746284561638255 -0.89966645748151763406 -1.0503080620481923813 -0.78412956237536801662 -0.43314869676982581392 0.54956387799781669656 -0.46601562233503557309 -0.14913130641194999315 -0.29778585969043230852 0.11125805329276247657 -0.1665653193441954949 -0.23353174048295349818 0.047965036649212200448 0.066877455119791179294 0.33638711158683864966 -0.29702923553145266222 0.29859194875749589526 0.16541281155827988747 0.70511793844263803699 0.28283529904067833405 -0.1389889879039319931 -0.24035863040151833614 -0.77563700548299152615 -0.24790003732356977184 0.073448115024416879559 -0.040235429082046074434 0.050879164331481416261 0.08694373928362310322 -0.04266203066772802921 0.0087341415287508512161 0.13599785106932443801 0.3801265314025983888 0.41202724774622989656 0.45826714816606589631 0.11033954778231826188 -0.075080232795156659487 -0.15171876889464880334 -0.044569268826147499796 0.11597603520311751402 -0.051319355363873685183 0.019606038453251262155 -0.01204031188094178105 -0.028256470477099761285 -0.15072787715274432729 -0.14437549837434615618 -0.0040943834646578452369 0.072762473508567987457 -0.05008441434603046194 0.20402105196457306913 -0.074508946091036143411 0.03012623379769582832 -0.017619746125628318878 -0.095900491221032085898 -0.044316958907161072001 0.24013957829987597759 -0.22577972768349699462 0.13252324940508336537 -0.032527964406630867356 0.026520490540427880261 -0.22173880790005703889 0.029651695292901722456 -0.072301935629829353069 -0.26054986465852025823 0.12312867742510709423 -0.0011737393096684710196 0.06625460098321474256 0.055993629379997106321 -0.022315799254683282155 0.097019522864134705165 -0.069733649804456870891 0.031428407555621845626 0.16577284593633453968 -0.021069657959370144407 -0.23066915377152399924 0.11893095503387861311 -0.1613913100642567211 0.032761737204332196105 -0.061029924555186368385 -0.063145839720408686313 0.073143352469093494972 -0.1959087398762823784 -0.17247222914195459165 -0.049618263600058817864 0.0051433186708576229471 -0.017383887133858754587 -0.082272157459825412396 -0.066815641604084832772 0.060711239930476626481 0.042388530707270104247 0.002438056840476383446 0.17075779218335340737 -0.10922840251887634688 0.11549455523302636084 0.16542871025566710519 -0.09157654873156714781 -0.025944606078664431137 0.24262631075625909483 0.15086832419159104668 0.023752625341916588225 0.10832424839170011477 0.10075938158003845679 -0.10260999342626236919];

% hidden test
bH = [1.4164571506832634995;-0.86216348449374691221;0.31079448892992733722;0.29560033367751076261;-0.83972986322423359695;1.3903886253403423545];
LWH_H = [-0.8936 0.11610420534069644527 0.087655505043574610813 0.0082285466155394629273 0.016917439356258740651 0.0045278297261783367889 0.036273307832576935639 -0.028311254037616567086 0.017752314091592832218 0.017047318564778462385 -0.05469777031150150487 0.24732758531011894698 -0.070767539937483303625 -0.053972300584973709192 -0.094547192481089142868 -0.13137876430059017285 0.0083654633259294848557 -0.043228003375061926916 0.016119902850341340933 0.017836509072138278381 0.090317015419094939799 0.092543134831308798693 0.039435084649758492259 -0.028434114511526265706 0.062664145469425627799 -0.0099807966654859251593 -0.02952358298395998254 -0.029319287003529970886 0.0049419753506655108785 -0.02872339123271081332 -0.11175824686271960962 0.15962347646459720818 0.12604048502256209874 -0.1449448379056702263 0.26237231928673016013 0.035249634730369641678 0.1026872587145249982 -0.079137112599266395963 0.039096873887764886646 -0.15372228995408696028 -0.05690530305491462576 0.34397403045511193431 -0.090368668011847064214 0.022958382195334258585 0.1399176021678010251 -0.082874826789171143759 0.02111103835995664299 0.064323481487720171601 0.03959653238650544943 -0.043167176870301748881 -0.070400307390379238126 0.053394157728253441308 -0.15930857021067537649 -0.043632634800882551251 -0.32345032883512264688 0.050658264147289792934 -0.12626602924748528411 0.040221374638826377923 0.038213074134827273998 0.077957104970117763187 -0.073691666392161389587 -0.17957344174844511175 -0.19511475139277878466 -0.1928977516861270225 0.024931823316763506576 -0.36393373749528229455 -0.64725474284316242279 -0.53860672096655515251 -0.19244281722125367029 -0.088282362597397356918 -0.072810322794174361927 0.071021489703918999625 -0.058536637379480893628 0.069881047530169979054 -0.036485999021699293265 0.043860115053148893138 -0.20105336939150225684 -0.20036804322939638645 0.33982514270253560973 0.60515277693194535757 -0.12493173139009036698 -0.22538993033056176074 -0.59024228663644973114 -0.99265691597404503987 0.3077410024661957344 0.2598921035440421301 0.35179700718978718088 -0.019475530070676091293 -0.0045836004915116874275 0.089613788222339452183 -0.0036078513161060415428 0.1813995119823516855 -0.095112270823398223363 -0.42007270397957618968 0.37740539083860791258 0.36545058598119178894 0.75354180418002714159 0.68023085304812735963 -0.27146277238772742457 -0.75321800375178948883 -0.60498573475139327815 0.066303463434465484405 -0.050053018572250813911 -0.021546862875414143912 -0.10678340186983008298 0.12532027489586780589 0.43917787637419475333 -0.25513972838702186907 -0.39176360450176217487 0.19897810295302495454 0.51326057777717437602 0.15383692944395802038 -0.56386228796046022893 -0.87236849331500987415 -0.73638967166405111531 -0.37411884975054016111 -0.0010186004361528704781 0.06381072666459136622 -0.11564597524560053798 -0.053378750582208138453 0.053054963010955316638 -0.085827927232768344568 0.13585096767123944206 0.47387207402440412185 0.30285371721670217848 0.52576033802633681535 0.28553847496425266428 0.97689748269747556098 0.69196582158470198998 0.26406736484149018196 0.27380649710242560557 -0.22624645214888305933 0.008887831729774062911 -0.20997253978114172046 -0.031901188095249582988 0.054951442389924463894 -0.18436420844497006244 -0.31234028131863145195 -0.14788951387667792492 -0.037995588878000731425 0.0073652793056139583688 0.43506482188275458212 0.93159425063751943874 0.90289188916121421169 0.34911228880921096884 -0.15950835974887248025 -0.17706858340189993162 -0.10878161005869174671 -0.022179288187172335051 -0.075366405171638700677 0.031411585267759743745 0.032645680955214230468 -0.36494616456383277558 -0.086348271001387907897 0.19874871429573146009 0.16501448271065516371 0.08792306140300769346 0.084695627804589668219 -0.11523918810698770276 -0.10487080806858946336 0.043598954448469985634 -0.091367716896196535248 0.11295329730143142954 0.087146993471523978569 -0.068569945831657194701 0.080866731333292224404 -0.053076212019720570012 0.078520403673858860105 -0.10397209179477626129 0.092771544699397523459 0.043521081356421055519 0.19515936321180482604 -0.006170995074501108707 0.098322777453358642386 0.037418040790334214374 -0.079416623312606862695 -0.091088007568612294751 0.053096995842778431374 0.017990657990470251132 -0.092754385829359631277 0.19816640530489945671 -0.084321983322865792787 0.1871795211969086159 0.051753015640110054674 0.051220379799929938169 -0.0072069150297278967293 -0.016715901913365738968 -0.045951114821346686345 0.042383666323075712412 -0.085545772048152279865 0.08081470277736881036 -0.022210197310986258545 0.034584425539207992728 0.12123384311447872597 -0.021966296728597442534 -0.023969189438769064604 -0.069284853503018162257 0.038223191523475509579 0.0015616027165867350877 0.031319059056577037981 -0.082058841707771473795 0.097980005337533204735 0.025631079990731851781 -0.16042321250175836655 -0.0080499630588530685094 -0.037976734461933635278 -0.065604094420122299747 0.096095044398709972278 -0.022117310071516380759 0.12134419002205593108 0.059479283981939704007 -0.078444899585147012666 -0.060060388581261232865 0.0050168920447144814759 -0.017598449854285581895 -0.088815126403211180905 0.16744478456202627203 0.026651441616345993013 0.041932696826337052809 0.072544446721790403765 0.071500082078244125983 0.042699320948294941513 0.12452357630172866676 -0.096934948130104156561 -0.19005340061489506276;0.029264472188548634746 0.04667628866590817216 -0.017266002250450447619 -0.027080408218555489935 -0.041416825985901239982 0.13115158473310103981 -0.015720110123864882573 0.030161001844250721199 -0.012022391570850143525 0.021338109395780874289 -0.11715112567569355151 -0.16643136969514876755 0.020031806570887291524 -0.17017035496151566853 -0.11311680511839224128 -0.061788152686897003518 -0.12026612810459584579 -0.088551712650580371999 -0.052627462811442940471 -0.029725486127453241286 -0.065585028348360857597 -0.11445026817496097016 -0.11143344031701676866 -0.14619544008402857171 -0.0089878728923014784141 -0.016505492359541372449 0.050860969823953203206 -0.062850164430886992784 0.12325639001463269129 -0.12009967970989393615 -0.010071262737342110208 0.097021503260092609167 -0.064656250824211017325 0.065943995428608348508 0.11355578103813010471 0.11863799441002377544 -0.16298417642049614629 0.11938705917698821946 0.056387546176033823131 0.07566861422698441253 0.14026943500349153826 -0.041275334185540225873 0.1362796558606330366 0.016216800753697288573 0.089710457813886063105 -0.026197536199037203819 -0.14332473509881812901 -0.019742743528337058229 -0.17459591300414550874 -0.10854464222953090491 -0.07941043511613637973 -0.18082963247662203754 -0.04207132309169828166 0.11288382387312088928 0.092147341164340132447 0.11436755207737772655 0.13167016308302309513 0.032227891948959412616 -0.12019643459137274721 -0.1495924951751947396 0.022766612035982628642 -0.026420916481929977715 0.055979660317164066374 -0.012261875717141884276 -0.12677395841548402822 0.087291809853367888228 -0.13389179626638209042 0.016270204386070723918 0.086897312652478131412 0.11001905301516576308 -0.14013814502656671279 -0.053242702077594565579 -0.070796190825013177728 0.014402052286986880697 0.0070896541131152731458 -0.038280400667440102336 -0.072570674750094460448 0.0034531481807100147287 0.14447114368457950051 0.095410361463869428067 -0.15876382136524830324 -0.13702340933227497022 0.13058520529636100105 0.055820454558644594378 -0.15726875739449114322 0.11556315196317397398 -0.037704341315838670046 -0.015041619278852757721 0.066661122660122626438 -0.040726296147221452415 -0.081656180941960393449 -0.084512401871434300604 -0.069325542006438617415 -0.013506004766490574409 0.010625611731846800259 -0.04678991847913345492 0.15776787747978601728 0.11421398515560410303 0.035619797179760416539 -0.16868325810243930962 0.10298861876592144138 -0.021805412331085731459 0.12029310284659117114 0.031234184374504717074 0.14742369499240343123 0.055237244060784625177 0.039424801732135944521 -0.118258749476078312 0.055980094078439228411 0.081221067492272508437 -0.023710586513734140807 -0.066477282481434557537 0.057936601323890342397 -0.10363830315083209788 -0.11853880139235276059 0.10845152785360095971 0.07841234468139454683 -0.13499841817936977795 0.063205971253676065946 0.086057875702814201624 -0.072830664493701208206 0.11624387373774856813 0.087215287075160963237 0.034069485140558630754 -0.077743099655375125234 0.105112750200577032 -0.091464661861965182443 -0.16212137850090799218 -0.052969519436762257936 -0.022466971979991659514 0.0068942046798146422101 -0.088962401790095624321 0.085072278244482754661 -0.078160121280718558578 -0.048323966481960155261 -0.0249972123891161295 0.13643845607600144088 0.035627661598571884471 0.026988506444212637808 0.054283365073864733863 -0.17916891536942583518 0.056082896208562021956 -0.049553217067858548739 -0.0033263538985322527175 -0.1651286750099670575 -0.058256620253787610997 -0.1676785464788829727 -0.1491218134437295173 -0.11313505470628520966 -0.083743270987402182448 -0.021918369881002486288 0.037147376640947062099 -0.15764897749114584191 0.0025753988859692983696 -0.084724462462032704146 -0.14510479497148823236 -0.071825354275090319556 -0.17312006596993717578 -0.06974994099925629909 0.10259479840930248173 -0.1578062461197896893 0.029135669634562915559 0.012617187515644072773 0.04727451464283843191 0.076089090420956823069 -0.013700929869751101581 -0.05968587148195736436 0.047717354979361664702 -0.076310424134447843447 -0.12787146209929936558 -0.098910555189516066732 0.049253762878431910088 0.0069039494128783204449 0.052948940900645467822 -0.14955089967853335553 -0.026889374126598138831 0.060754630215167519658 -0.034844856401502866117 -0.15565468727333733878 0.028558631651426091141 -0.14020908247973584704 0.1132494505495879461 -0.14087324900668046768 0.13173609235374916793 -0.072577805362600111838 -0.09207982558597758993 0.097366186350744912681 -0.051633355944693738737 -0.029789046834764399546 -0.14662425367622436423 -0.10219772666193713273 0.12163235564238880637 -0.068795340855176662087 -0.027228016861104514801 0.01773286816748566308 -0.079510566860089365582 0.096234225338702503172 -0.1707583773200121724 0.095233982232906577714 -0.10402286413339000004 -0.10141592549384037536 -0.12862961245525630916 -0.12193033365599795226 0.098423141580327722089 -0.15943193559810114879 0.096689246682464632943 -0.14615717812878212256 0.036399734429767904853 0.11465285560675836374 0.045105895897399057859 -0.08989271442348169272 0.12253600299180340827 -0.12404785595065515036 -0.048037657109766554453 -0.071881751891260212139 -0.13286173217553667869 -0.10680463568695276744 -0.1187403709441089833 0.058673196032689105273 0.04538314622585686714 -0.050482118243849398442 0.031300766967014441444 -0.077853124110474319908 -0.12186820874085785293 0.1183948197088551535;-0.061408172634986643579 -0.053649574254038219501 0.22024221133396110206 0.21460809901596883398 0.035423107309223447747 0.18900156384950039801 0.023636123767057273803 0.021084968225853668172 -0.070441287150031894893 0.023692420358046743789 0.059449526994176625505 0.14824020152379890902 -0.008633619061709885828 -0.0080914828398929890263 0.03017134301913879102 0.055923540411806381412 0.0033209130929664101677 -0.092325624435535907919 0.20982395656530999917 0.039151835497375900297 -0.046150480554790734855 0.032659629214446310452 0.11288451220086577476 -0.052537736050379632569 -0.3279951703759036441 -0.078390626960825798841 0.066062830098104569077 0.069813114400949588534 -0.064850231916771666763 0.067161611953919800322 -0.092345676355087030762 0.15458080974300250632 0.063252412319326392631 -0.041704884262806135586 0.26929957761454403897 0.20484593723836286294 0.018328019836638897999 0.082585400183245977201 -0.046944034750598134798 -0.22619342258357330588 0.084147258408099973037 0.14394657525726647918 -0.19751439286702673903 0.050295336061721228338 0.11730930889736504441 0.07941190873898076874 -0.070513002700618485075 0.0060568279522759255196 -0.10103326116480362828 -0.09801593639783628964 -0.073030612245752773992 0.11422893575843325042 0.046393208564038557196 0.076896320929100078767 0.10346575606955726867 0.10308974378032352559 -0.039114786368424817042 0.065219183343647360585 -0.10455415702120583743 -0.11396258867190429964 -0.12048748623573424243 -0.12922528423217086169 0.1558679011407030357 0.18363732221989678695 -0.15615039466295196902 -0.2915091225236259298 -0.79146018670180318111 -1.0451672179019382281 -0.70936129251008372965 0.044090400837161473901 0.15051640153400680511 -0.0086112171362074437647 -0.076588596584594048622 0.11521523818637198489 0.0041117962588519962885 0.041241285436400931808 0.074166943874822116589 0.34652572558888777854 0.33231039349909802239 0.34914064340282391363 -0.38297054745310482593 -0.83804967834012167316 -1.562543356479837886 -1.5573030626398958187 -0.1706765320214166104 0.74145516329930638566 0.47294501878071576462 0.038436574968194851809 0.11938250423615871798 0.029983634511969496639 0.12963237300527372109 0.35670457081732254156 0.77034047230793034622 0.18936012303941379686 0.11214616190566803478 0.090821945241243706715 0.21075902503941962296 -0.10541269550692122792 0.21389981906465538319 0.36324618287272120165 0.43762166527542939454 0.24639270992892431389 -0.094122102374378041612 0.1562363118868923817 0.035249290008048841938 0.12695061731111589864 0.30691593732163452435 0.11369816280987196655 -0.53890907967821455316 -0.70039243066497103296 -0.37773392867137434159 -0.63564965284722829697 -0.34921077442287157266 -0.37661088291534378092 -0.38969300354970165534 -0.35641232592433325088 0.037555200424033194362 0.10175125259905497266 -0.017365308051029895026 0.040607068636232063197 -0.10037441510441709458 0.042034521891931894699 0.17949942747884306549 0.40589372960261843604 -0.24974464570693699628 0.12842954155281469109 0.37660516299995711043 0.30666091979477744234 -0.49851474764291847652 -0.34571370586292904381 -0.094086111002715952512 -0.53316445023767122802 -0.031891961604535966346 -0.027173246348061688704 -0.28037196153349641659 0.12783186823121908682 0.28933052912987655692 0.51256868490958296114 0.56903783301834376385 0.45864429914488263895 -0.023415076826943690552 0.23532428057901927376 -0.2250640557313750012 0.23591876050431612177 0.18859104543878127402 -0.3310902843562856801 -0.27866336087369014685 -0.10778514066232468271 -0.20968196246569026364 -0.037691271262401258857 0.080274141958255287865 0.21783681906469853917 -0.035835598932032503017 0.10715875493505805371 0.044845184753471323269 0.16394293373056420537 -0.064265117042658720381 -0.17825187760566571504 -0.3614619835324937025 -0.2448799860497435088 -0.18327345884660870001 -0.055808961932848524801 0.056297841398069620178 0.12599372284809476352 0.11673739249108287808 0.08318373423603871164 0.12569783599877037972 0.034164629685375834389 0.070430356293137902357 -0.012781264172172289093 0.028760204889785520588 0.20300634166967529426 -0.010094606846114444892 -0.040363540200167524752 0.049650203118976388161 0.031674732109647191214 0.027660911714579225484 0.078579432414555477893 -0.12774277921255036694 0.028947284478285869452 0.16737650594596711895 0.047084235358739824628 0.057216600130503725286 0.083063318641034666889 0.076418411798016366854 0.17366312692724716893 -0.14656342618376400067 0.11773937876143962533 0.10906583087816769384 0.080270837945770737165 -0.029007217251751260534 -0.072293869904443003316 -0.13049082165098180308 -0.032826795518233656268 0.16253322606686554375 -0.0021879224776705221908 -0.23719108428682611489 0.23423990482656589784 0.032556792003417309167 0.081935864752382514542 0.041746632141651203451 0.0074106875086228565092 -0.022947315920239116926 -0.0086110584441530489686 0.029200063001706872551 0.11256217564466348968 -0.095352482793746876077 -0.024020650456502267572 0.057871465162079610556 -0.034898496692722873191 0.079156676865959160749 -0.047002351636202505114 0.070241967728135054627 -0.054413890968204266241 -0.10613099253703076053 -0.07058539132156776974 0.0065845301803074580971 -0.0050471801973329972341 0.054652003002327871617 0.14896250050203815873 0.042839459968906416776 -0.088013208042051677138 -0.055015939212250682122 -0.077229924657045229131 0.049688741795048119165;0.090873860217240712278 0.093145996251012649902 0.042571765824978652359 0.24001016577734357593 -0.026981927047221763993 -0.071800760715398703748 0.046930827170189835795 0.25425625330397588764 -0.024639383512702377893 0.14239792073399656913 -0.12223800873231055464 0.0099855815460389747706 -0.016909281188455443923 -0.11111845604137043919 0.032167035814348786393 0.030745017300946923117 0.19166014420603533219 0.11003768275776727725 -0.10894657297599612267 0.048591498633378936434 0.017101618132681899176 0.112509145320475068 0.046124756612129051703 0.056230559254853852702 -0.036988283377775398042 -0.088598244446700127885 -0.0079685093613370977517 0.035265330235916943213 0.077585594406864036299 -0.043567811977746943863 0.069086690897370683917 0.11863036199427112738 0.13314209716738911737 -0.057743180488072795575 0.077450337075852318525 -0.05874346632132842333 -0.076374245131108270401 -0.27875567682958346527 0.034045477524464635988 0.158292593417254851 -0.15206610199325890087 -0.026420897052783290371 -0.1716309997674609622 0.054179636960197591344 0.072115712182333591151 -0.088147319384605085646 -0.0049302619907426173049 -0.17932464675167386625 0.090086918214560024465 0.028001128863409545378 0.071612185067007699812 0.071271064954571375361 -0.07905524118049969684 0.029222398504123472257 -0.0033867000088733806296 0.135009279128972981 -0.1539629972124061108 -0.030629667038890470016 0.14037701895912821359 -0.036638324991052191593 0.024398079382781781566 -0.10208017986727246917 -0.076377806110556334396 -0.14727723973602321883 -0.054127652152991825862 -0.28663316509163289103 -0.074832811914764915673 0.0058264346507522482219 0.17508164448330829077 0.038907331916988675824 -0.044947428921085434694 0.059976315260840427912 0.14488541700958013081 -0.07127709483127950274 -0.0084022292253924570765 0.032687755162194548353 -0.12116907136183137361 -0.56327476892615679915 -0.34883361668574736081 -0.41742219639221200822 -0.50825745369021668729 -0.45075569489080163921 -0.58244277951951695105 -0.96611508703705861745 0.2678950685392322284 0.50712190042645088894 0.32224334090708617317 -0.003043610291853359167 -0.15133812613472891195 0.027970445362891897118 -0.052617874134048343848 -0.22954692385706307323 0.0018603204732333582586 -0.66473270723254052061 0.094526572312178619439 0.046408813109991071955 -0.32142658009746627457 0.025634634471050982835 0.22639662670787921717 -0.16926139868636094765 -0.37994573390759422971 0.15200757778639961693 0.029544999207597046065 0.061728585583259408531 -0.079011666899686486265 0.0693020582606989205 0.16615416354050174808 0.18065871607862449277 0.35286976344411685735 0.71689526671608538866 0.40650412850552458677 0.26113970147474702133 -0.1624531052924803598 -0.48165676237307436525 -0.26282538924227866195 0.54167049469334738188 0.064332325527479569671 0.045891105101473490813 0.16450276115575693248 -0.10038254590505982233 0.17329697777225891442 -0.0081388657127783696488 0.28004198221354209553 0.62156422408597622464 0.52063663874668408837 0.069104396490274375142 -0.040684277302092550221 0.63473391865692263547 0.7228335185107955807 0.79622744065180039996 0.9445780743178353589 0.13335328325939685423 0.073000169697264971624 0.082316614410903696242 -0.16134187595826968153 0.14745908351665781844 -0.1557408337961448952 -0.64508154452939370227 -0.93303075814413671818 -0.67994538841496765524 -0.22778429795079230269 -0.16352854097417995893 -0.2040870907137737611 -0.22032746726614010901 0.055840676361257189642 0.25495342827699557509 0.27403790710279923859 -0.082151991262322199283 0.16368717363769960671 -0.17399863329402484591 0.047138552746036309349 0.057564895046201255968 -0.078535648761168391774 -0.27044391152874314166 -0.21106106400043850302 -0.21744969818332435252 -0.20767177493737587479 -0.062242473293524114286 -0.13024224321875482735 -0.16739741350964787436 0.028541788420776637719 -0.14082503582597308278 0.095857551124743145543 0.046895056300033849395 -0.258965204130932658 -0.11319338769473472062 0.013432542115576080397 0.15524477288571844613 0.0021519841113626686675 -0.054691767987484055102 0.069150125676537721464 0.025544983230485356768 0.019630867120522019209 0.019185569719126681354 -0.045807834711093883828 0.016768597889050697314 -0.26474008843533181068 0.13454569502572782946 0.070575246885922648943 -0.03281248224348103093 0.15955773310405527154 0.036413116132331661834 0.092212095354286843785 -0.041025471382912362395 -0.039550972829768105132 -0.082203810140866223621 0.11572328857861677309 0.00095195557105892886565 0.06859108741806360654 0.019415116634626524567 0.02062170405710814225 -0.037305496501333405834 0.044317755348750376143 0.15661861537677707057 -0.0015045303260924590416 0.054462269018427718337 -0.026144693817671715158 0.12212083120226467636 -0.11919742524889956337 -0.047338362966295288725 -0.085827931102880936076 0.0077744123684632395963 0.018870233040027172694 0.16830364359093416549 0.0083822815236658555771 -0.11105338417481207258 -0.12543863849860595328 0.072597749074107362222 -0.14903420049194374131 0.059972665067757946478 -0.090833053082451223337 0.073667978556011634583 -0.019455629340165894042 0.021378866110100060854 -0.050730164774266568728 -0.083615016931656988008 -0.0538386338510614057 0.089690976155329241171 -0.034769193703989662025 0.12711969230863195968 0.10851647585965959464 -0.055562836729511573541 -0.048754631998002700977 -0.14744724455951693787 0.050602030784125173746;-0.10252163335562111679 -0.08413270691683566449 -0.0023981983274433925357 -0.091824815289515845929 0.08952361832934675745 0.042204394666004479975 0.090887630816838926862 -0.047701884610485245641 -0.078043800007507435623 0.14223811245040557383 0.035493387740740192648 0.025109982797360288348 -0.1604974723237038714 -0.049566011791822656152 0.17152153691655344647 0.0038829386216984334602 0.057891009265933310313 0.06687797565902635355 -0.0045945950021161769544 0.12907536407941933021 0.14543986906833622497 0.15161181305378229611 0.15194023693335520497 0.14965503469549618076 -0.10457816531275938854 0.012044771927080394347 -0.056842859877670855184 0.042990152265674916321 -0.069599639042021405055 -0.06243156967553114417 -0.05556588929451372616 0.0071010271382466062101 -0.049513363646160539477 -0.024606042683344184901 0.06675708190081712512 0.032879747002150558344 0.14103970377756908094 0.091174616515611886514 0.063897057926238759462 -0.057331649014059710145 -0.1262641078542230122 0.032065762609106818193 0.066125098778203134087 -0.11950461108643739561 0.069415631490805165815 -0.044845108057396713963 0.19548802397083434035 0.010788780238913681792 -0.14047641519631148821 0.061789347758528068155 0.0023366661471699206112 0.068138095495236333798 -0.016806732987438219307 -0.060225925572355162863 -0.025306031919408375486 -0.14180736961170375965 0.030775141298741204299 0.0045533645319396146012 0.060485523866852582142 -0.14829294376936011379 0.13673619179753593311 0.041057531782128592335 0.21462910306594248921 0.11973687256544328361 -0.22344928561789961785 0.03643255592149528127 -0.034866036726916148358 -0.26467383575216685276 -0.16135302601374448828 0.0280027337531242905 -0.31092215878071416402 -0.18201898922647252732 0.047046351806504287107 -0.15523827802703013545 0.08786090303754005848 0.074790330269477220404 0.24299193121454107369 0.019743117566606561281 -0.20680809185626591873 0.021970253036654122797 0.17969712647853308685 0.28719819983741551317 -0.27670183867645625764 -0.24160089252289268513 -0.26776056298422262758 0.10305623570147680323 0.3489986211821148876 -0.11340310128434837045 0.049322474878764330231 0.13696240598024883584 -0.05357960692640095085 -0.12783695774101869191 0.27500164001092658461 1.6278299444269608287 0.37915514869784971985 -0.32483443671118589213 0.41019923105060696056 -0.39474216148908558566 -0.22228822234344022823 -0.16316503691558253974 0.48193778902425843391 0.3287827725141959645 -0.097442727632059800147 0.076038536437780468447 0.12910100567015322937 -0.089416658888510039405 -0.12398977789754735135 0.4179625704540100295 0.69846089985084203189 0.28270380809243111919 0.0032879448062701501464 0.15640169852332883038 -0.16734387102115724777 0.4711127387551781176 0.037581871271700977022 -0.20605293524456194665 -0.029544014175929063371 0.04379589271952945978 -0.19118609323273053069 0.055476475145375972464 -0.047699709660295859515 0.11223804040152510209 -0.24825828704502236888 -0.91448112859244212736 -0.62900752587679442662 0.34866169112537898078 0.071539356710603907441 -0.71641988442357162903 -0.35714506028191905784 -0.94726572714679169174 -0.44119671330322451919 -0.011390860352736923919 -0.13661241721470127053 0.11300467950455304889 0.01077797259167325751 0.1475357238982524799 0.60866545715957776075 0.6944300272527516027 -0.030639273638851421272 -1.3190357121133380325 -1.1837619247024462332 0.11901504245498645274 0.26037004266186414281 0.094180445441239213356 -0.083669649356063149903 -0.27959143227872818027 -0.10839377673898005494 -0.070822939133966547609 -0.046058499763292071183 0.12624607259266301673 -0.042622522275281300719 0.14069390251692207028 0.27383985385636333554 0.24698788184964534653 -0.014220935214257653806 -0.037981337493048453191 -0.2042689652263136868 -0.062780770502186819537 -0.16162565804942341519 -0.0065779460544657169727 -0.128415816267225813 0.0063648464940117320879 0.044161561589789746773 -0.057338326926687027685 0.18903928131712993688 -0.0097620845836106830834 -0.049539964257792973301 0.054691578965587350769 0.021668400767634567877 0.021478718382697849915 -0.019452742616718084884 -0.10809905356473789584 -0.03485126695670967556 -0.112097659496560767 -0.0086058174808680294038 0.14820167739617609581 0.039815218683373787556 0.02111038454141492271 -0.051928938305544306009 0.047556634889617033224 -0.040642582348693515049 0.12548133360347363263 -0.25002296916011496064 0.22388497153203132384 0.12041102034059185388 0.053111099503581116199 -0.055680545683679874558 -0.051037611514948177938 0.028481733208749880626 0.15120350352649880588 0.084516911358247168162 -0.17913909994930879432 0.076750711304658464362 -0.056425843383256131525 -0.083496102790829695994 0.10583854296889573521 -0.021942157341217249228 0.099937305796609698927 0.060757908350052187985 0.095561587238115766607 0.10242018516306349019 0.068839688685944921964 0.072425136079665969335 0.057627292743213980042 -0.053277622536629619387 0.10471379585368652265 0.080511068867862592424 -0.0060764739364928248982 0.087030143343443805426 -0.16498826041271358323 0.12690975993481645734 -0.062307306022531205869 0.029840515301077865512 0.06088079356086912447 -0.18328455199743148851 0.057067002880783972152 -0.024757895883474628773 -0.12996113916410589884 0.087607531881517472505 0.024655975713163576918 0.019500911720214394313 -0.06635271663067131287 0.15686021008672446087 -0.0045959320270163479816 0.08966171583646939669;-0.11491963777448252482 0.042626943800020314357 0.27917388516536639775 -0.10395314441983878606 0.09721744716645745743 0.21835802802260134703 0.067984286483521283451 -0.038272512846252493279 0.06974492350746745728 0.038529354456502684645 -0.13326524530186653617 0.19617605701726115175 -0.13884660247198563066 -0.17670382338164788982 0.13489238921320237385 -0.090130052473666649737 0.038781409338466021897 -0.1235066231608049625 -0.092547081973328559901 -0.11051182150444238683 0.11197176594468283284 0.21116064126719466532 -0.22857559310481667669 0.0054691515851950662369 -0.088884238198188095237 -0.40806780728861741236 -0.064412589730948516253 -0.084352006193593440098 0.089324540800369320315 -0.0084905771641244718456 -0.02031589287926077389 -0.36412386571373406285 -0.066256258779739451992 -0.074755087667464525936 -0.15059279324287863644 -0.12263164341236247601 0.04041993157261955516 0.18590746459678406111 0.22995378307329841783 -0.18869492339406551684 -0.26389905503054694735 0.15527779015880341373 -0.11602692919409657302 -0.053301694624951823087 -0.030159130106697056711 -0.036561236049886938759 0.15678358556802424184 0.098221503257279060839 -0.22553529389429141649 0.04649218738321700406 -0.022780562758008746777 0.14847773807050326789 -0.17345383736097916283 -0.031578550089464016426 -0.019149881666096397331 -0.11175306804151610707 0.08241177252649291296 0.16239992206781647677 -0.022394900726422927589 -0.026496109745733183866 -0.09847506876144059007 -0.08153522757502872087 0.1467069027207952292 0.11103256546540916927 0.39678897211168007164 0.22712499501264307722 -0.025588806916247736067 -0.1829359668635249514 -0.16062054986671947532 0.08616409579367265148 -0.41134097391655816134 -0.1711972249364157872 0.026917991464355479903 -0.098535359444791706385 0.24277477253365897791 -0.11459074046878835185 0.04251554122138458125 0.18854354776019702222 0.49116158770319878757 0.12790089308478005958 0.09985247710906186569 0.37682004222146064931 -0.89957309145336816769 -0.93798230035970964202 -0.34796248831192982953 -0.25270607911787057454 0.30540687547008416036 -0.2788778701897187684 0.01162367052733917494 0.053734116557032800265 -0.11564366060988567897 0.132212153094092566 0.46382248287731225878 0.21078660406730342913 -0.11140541486200285226 -1.0881849280884370312 -0.30760964320357869761 -0.1110687796747422823 -0.54486541618948647336 -0.84392051650857402567 -0.13067344102867806122 0.11449206240196345419 -0.12760358318234898967 0.16728952913477931896 -0.0038340793343322283546 -0.056434606140095149029 -0.089715526837312251085 -0.26195112345370669127 0.86341943056372627563 0.84815107333744133022 0.037798517425413999393 0.034461782507479818416 0.5230455467782887391 0.66681572660007515374 0.62937421929484049787 -0.38325864580907542667 0.069160032387321129788 0.21332329332507027342 0.12652233920675415302 0.09471194817367241392 -0.172718660885775116 -0.41367554369712516982 0.050799755833600149235 -0.70350746284561638255 -0.89966645748151763406 -1.0503080620481923813 -0.78412956237536801662 -0.43314869676982581392 0.54956387799781669656 -0.46601562233503557309 -0.14913130641194999315 -0.29778585969043230852 0.11125805329276247657 -0.1665653193441954949 -0.23353174048295349818 0.047965036649212200448 0.066877455119791179294 0.33638711158683864966 -0.29702923553145266222 0.29859194875749589526 0.16541281155827988747 0.70511793844263803699 0.28283529904067833405 -0.1389889879039319931 -0.24035863040151833614 -0.77563700548299152615 -0.24790003732356977184 0.073448115024416879559 -0.040235429082046074434 0.050879164331481416261 0.08694373928362310322 -0.04266203066772802921 0.0087341415287508512161 0.13599785106932443801 0.3801265314025983888 0.41202724774622989656 0.45826714816606589631 0.11033954778231826188 -0.075080232795156659487 -0.15171876889464880334 -0.044569268826147499796 0.11597603520311751402 -0.051319355363873685183 0.019606038453251262155 -0.01204031188094178105 -0.028256470477099761285 -0.15072787715274432729 -0.14437549837434615618 -0.0040943834646578452369 0.072762473508567987457 -0.05008441434603046194 0.20402105196457306913 -0.074508946091036143411 0.03012623379769582832 -0.017619746125628318878 -0.095900491221032085898 -0.044316958907161072001 0.24013957829987597759 -0.22577972768349699462 0.13252324940508336537 -0.032527964406630867356 0.026520490540427880261 -0.22173880790005703889 0.029651695292901722456 -0.072301935629829353069 -0.26054986465852025823 0.12312867742510709423 -0.0011737393096684710196 0.06625460098321474256 0.055993629379997106321 -0.022315799254683282155 0.097019522864134705165 -0.069733649804456870891 0.031428407555621845626 0.16577284593633453968 -0.021069657959370144407 -0.23066915377152399924 0.11893095503387861311 -0.1613913100642567211 0.032761737204332196105 -0.061029924555186368385 -0.063145839720408686313 0.073143352469093494972 -0.1959087398762823784 -0.17247222914195459165 -0.049618263600058817864 0.0051433186708576229471 -0.017383887133858754587 -0.082272157459825412396 -0.066815641604084832772 0.060711239930476626481 0.042388530707270104247 0.002438056840476383446 0.17075779218335340737 -0.10922840251887634688 0.11549455523302636084 0.16542871025566710519 -0.09157654873156714781 -0.025944606078664431137 0.24262631075625909483 0.15086832419159104668 0.023752625341916588225 0.10832424839170011477 0.10075938158003845679 -0.10260999342626236919];


% Layer 2
b2 = [0.37287964610751206385;0.71528826711846771325;-1.3648281645822719632;0.39473291369475421719;0.72711743185072941209;-0.01969951412115599626;0.056704212277195575886;-0.09876933845374133436;-0.71895913873999073296;0.37427706382843217714];
LW2_1 = [3.2563940147279732962 -0.32834930091911579408 2.4820028772712179332 -4.1226027703544172454 -2.1778085458315414868 -2.544100099075582655;5.9220226916246589965 0.49265960795229085667 -2.8244636169018226823 -1.8642374316741610052 2.7863038878408117327 2.0297252301164769861;-4.5253685455950254379 1.6136149219635069763 -4.7856779228452719366 -3.3515463202175865831 2.0274714864569376438 2.7865131729296037655;-1.6350457945562166806 0.54714978384807366751 5.6889637493580931249 -3.536318286562992963 2.3661320617758416773 1.8440212110330838069;-3.778817459018260827 0.054359817588202498373 -2.5011279249402273983 -2.6397614409575043126 -4.3454606207254666828 -2.1653773725293157248;1.3191768125340748163 -0.87708913309160740912 3.4395233679607506438 3.1293399729433977186 -4.0769693729423552853 3.3061401187907626387;3.4013967535317419788 -0.55017845227298023403 -3.851814951675895049 2.5277426122668775754 -2.8668361902883665593 -1.8467559324097213569;-2.972912728901013768 0.35424799932545686376 0.30949581458363267794 5.1327862461902613589 1.7748102604597333354 4.835274423507136099;-3.5484176824427500208 0.24124074149394772459 -2.6598187801665047481 2.9508888054750781471 2.3258532209418865122 -4.4651401939487564974;2.4488083783384357872 0.11681608294937184667 3.4406077879286733889 2.875329119408448264 2.9483285429156071977 -2.5971398682830115767];

% ===== SIMULATION ========

% Format Input Arguments
isCellX = iscell(X);
if ~isCellX
    X = {X};
end

% Dimensions
TS = size(X,2); % timesteps
if ~isempty(X)
    Q = size(X{1},2); % samples/series
else
    Q = 0;
end

% Allocate Outputs
Y = cell(1,TS);

% Time loop
for ts=1:TS
    
    % Input 1
    Xp1 = mapminmax_apply(X{1,ts},x1_step1);
    
    % Layer 1
    a1 = tansig_apply(repmat(b1,1,Q) + IW1_1*Xp1);
    
    % Layer H
    %test = repmat(bH,1,Q)+ LWH_H*a1;
    %test2 = LWH_H*a1;
    aH = tansig_apply(repmat(bH,1,Q)+ LWH_H*a1);
    
    %Layer 2
    a2 = softmax_apply(repmat(b2,1,Q) + LW2_1*aH);
    
    % Output 1
    Y{1,ts} = a2;
end

% Final Delay States
Xf = cell(1,0);
Af = cell(2,0);

% Format Output Arguments
if ~isCellX
    Y = cell2mat(Y);
end
end

% ===== MODULE FUNCTIONS ========

% Map Minimum and Maximum Input Processing Function
function y = mapminmax_apply(x,settings)
y = bsxfun(@minus,x,settings.xoffset);
y = bsxfun(@times,y,settings.gain);
y = bsxfun(@plus,y,settings.ymin);
end

% Competitive Soft Transfer Function
function a = softmax_apply(n,~)
if isa(n,'gpuArray')
    a = iSoftmaxApplyGPU(n);
else
    a = iSoftmaxApplyCPU(n);
end
end
function a = iSoftmaxApplyCPU(n)
nmax = max(n,[],1);
n = bsxfun(@minus,n,nmax);
numerator = exp(n);
denominator = sum(numerator,1);
denominator(denominator == 0) = 1;
a = bsxfun(@rdivide,numerator,denominator);
end
function a = iSoftmaxApplyGPU(n)
nmax = max(n,[],1);
numerator = arrayfun(@iSoftmaxApplyGPUHelper1,n,nmax);
denominator = sum(numerator,1);
a = arrayfun(@iSoftmaxApplyGPUHelper2,numerator,denominator);
end
function numerator = iSoftmaxApplyGPUHelper1(n,nmax)
numerator = exp(n - nmax);
end
function a = iSoftmaxApplyGPUHelper2(numerator,denominator)
if (denominator == 0)
    a = numerator;
else
    a = numerator ./ denominator;
end
end

% Sigmoid Symmetric Transfer Function
function a = tansig_apply(n,~)
a = 2 / (1 + exp(-2*n)) - 1;
end
