function [y1] = myNeuralNetworkFunction(x1)
%MYNEURALNETWORKFUNCTION neural network simulation function.
%
% Generated by Neural Network Toolbox function genFunction, 05-Oct-2017 14:46:17.
%
% [y1] = myNeuralNetworkFunction(x1) takes these arguments:
%   x = 2xQ matrix, input #1
% and returns:
%   y = 2xQ matrix, output #1
% where Q is the number of samples.

%#ok<*RPMT0>

% ===== NEURAL NETWORK CONSTANTS =====

% Input 1
x1_step1.xoffset = [-0.99;-0.99];
x1_step1.gain = [1.00502512562814;1.00502512562814];
x1_step1.ymin = -1;

% Layer 1
b1 = [-2.3325954706698937002;-0.3663205320193679837;-0.00018261375140175083284;-1.0031604539974525725];
IW1_1 = [0.059723205059048649346 -1.6651599572101583036;0.0081526104293114364657 -0.22914642004744498194;-0.028858619347936494137 -4.0763968012108658349e-05;-0.012606082019881621747 0.35422128817005354984];

% Layer 2
b2 = [-0.073205211693565780395;0.064818663109824287138];
LW2_1 = [-0.0055565787732595886897 -1.9863125230983382785 -18.696075690340013153 0.81519391873011837202;0.0053752730331279143308 1.93130685347504083 -16.881050966448349016 -0.79256660767558273495];

% Output 1
y1_step1.ymin = -1;
y1_step1.gain = [0.523560209424084;0.50761421319797];
y1_step1.xoffset = [-1.92;-1.95];

% ===== SIMULATION ========

% Dimensions
Q = size(x1,2); % samples

% Input 1
xp1 = mapminmax_apply(x1,x1_step1);

% Layer 1
a1 = tansig_apply(repmat(b1,1,Q) + IW1_1*xp1);

% Layer 2
a2 = repmat(b2,1,Q) + LW2_1*a1;

% Output 1
y1 = mapminmax_reverse(a2,y1_step1);
end

% ===== MODULE FUNCTIONS ========

% Map Minimum and Maximum Input Processing Function
function y = mapminmax_apply(x,settings)
y = bsxfun(@minus,x,settings.xoffset);
y = bsxfun(@times,y,settings.gain);
y = bsxfun(@plus,y,settings.ymin);
end

% Sigmoid Symmetric Transfer Function
function a = tansig_apply(n,~)
a = 2 ./ (1 + exp(-2*n)) - 1;
end

% Map Minimum and Maximum Output Reverse-Processing Function
function x = mapminmax_reverse(y,settings)
x = bsxfun(@minus,y,settings.ymin);
x = bsxfun(@rdivide,x,settings.gain);
x = bsxfun(@plus,x,settings.xoffset);
end
